-2.426044344902038574e-01
1.241256594657897949e-01
-6.935995221138000488e-01
-9.831538200378417969e-01
-5.781048536300659180e-02
-9.903697967529296875e-01
-1.149331331253051758e+00
1.255867004394531250e+00
1.438138365745544434e+00
1.472436729818582535e-02
4.659596383571624756e-01
-3.820214867591857910e-01
-2.960416674613952637e-01
-2.905564606189727783e-01
3.569743782281875610e-02
-1.212250947952270508e+00
-7.041487097740173340e-02
-1.252518177032470703e+00
7.264077067375183105e-01
5.393737554550170898e-01
-1.733066588640213013e-01
3.183736205101013184e-01
-1.077234268188476562e+00
7.989082932472229004e-01
-5.585981011390686035e-01
-8.488565683364868164e-02
6.096351519227027893e-02
-1.476357221603393555e+00
1.212875723838806152e+00
8.553965687751770020e-01
-4.315982162952423096e-01
-4.099665284156799316e-01
7.066618800163269043e-01
-9.700105339288711548e-02
1.634755015373229980e+00
1.492242664098739624e-01
-6.722413897514343262e-01
-2.696737945079803467e-01
2.188864350318908691e-01
1.605794429779052734e-01
1.391148567199707031e+00
7.433781623840332031e-01
-6.630467772483825684e-01
-1.799754202365875244e-01
6.766106188297271729e-02
1.200870275497436523e-01
1.186212301254272461e+00
7.061356902122497559e-01
2.995815873146057129e-01
9.608521461486816406e-01
-4.383829534053802490e-01
8.870609998703002930e-01
-6.750843524932861328e-01
-3.908181488513946533e-01
1.068841695785522461e+00
7.833990454673767090e-01
-2.055531293153762817e-01
-9.879798889160156250e-01
4.908174276351928711e-01
-1.720053702592849731e-01
1.306756436824798584e-01
-5.532786846160888672e-01
1.996060907840728760e-01
-8.072431087493896484e-01
-2.923312783241271973e-01
4.152176380157470703e-01
-6.722168326377868652e-01
8.461177945137023926e-01
-1.392841637134552002e-01
-2.129078209400177002e-01
4.242826700210571289e-01
3.586747050285339355e-01
-4.414804875850677490e-01
5.332235097885131836e-01
2.552122995257377625e-02
3.731891512870788574e-01
-2.729104757308959961e-01
-2.860657274723052979e-01
-2.818128466606140137e-01
-9.021829366683959961e-01
1.095019936561584473e+00
-5.213239789009094238e-01
-1.687620729207992554e-01
2.495635598897933960e-01
-4.119320213794708252e-01
-7.459258437156677246e-01
6.095286011695861816e-01
2.818559408187866211e-01
2.341614812612533569e-01
1.935794390738010406e-02
-5.273209214210510254e-01
-1.500685811042785645e+00
-7.012573480606079102e-01
-1.229017257690429688e+00
-1.954871714115142822e-01
-2.951125204563140869e-01
-4.631411731243133545e-01
-5.571386218070983887e-01
8.206185698509216309e-01
7.577657103538513184e-01
4.542558193206787109e-01
6.924392282962799072e-02
-1.445056796073913574e-01
-5.164657831192016602e-01
-9.612678885459899902e-01
2.161307185888290405e-01
-6.437379717826843262e-01
-1.620177984237670898e+00
7.448102831840515137e-01
-9.337710738182067871e-01
8.683975040912628174e-02
3.741190433502197266e-01
-1.457990884780883789e+00
4.378017485141754150e-01
-4.637269303202629089e-02
3.317656815052032471e-01
1.523463577032089233e-01
6.027704477310180664e-01
-3.554810285568237305e-01
7.898989915847778320e-01
-5.941163897514343262e-01
-3.449901044368743896e-01
-6.292848289012908936e-02
-1.673012077808380127e-01
-1.317464709281921387e-01
-1.400950551033020020e-01
9.296778440475463867e-01
-5.079257488250732422e-01
6.483386754989624023e-01
2.273427248001098633e-01
4.264854490756988525e-01
4.526245892047882080e-01
-2.727793157100677490e-01
8.822504878044128418e-01
-3.188543021678924561e-01
2.383941411972045898e-01
-2.619212567806243896e-01
-1.022383332252502441e+00
7.491209506988525391e-01
-4.706028699874877930e-01
-2.215298861265182495e-01
1.332767724990844727e+00
6.378135681152343750e-01
3.592049479484558105e-01
-1.232539772987365723e+00
-3.429656028747558594e-01
7.041686773300170898e-01
-5.087222456932067871e-01
9.825246930122375488e-01
4.491834044456481934e-01
4.215811491012573242e-01
-8.704627752304077148e-01
5.494961142539978027e-02
1.453929096460342407e-01
-2.635114826261997223e-03
-2.545315921306610107e-01
-5.933442115783691406e-01
-2.893724143505096436e-01
-8.636105060577392578e-01
1.212710142135620117e-01
4.745172858238220215e-01
-1.158493041992187500e+00
1.370501220226287842e-01
3.931576013565063477e-01
8.028268814086914062e-01
2.569840252399444580e-01
-2.491740137338638306e-01
2.968434989452362061e-01
3.843192458152770996e-01
1.006417751312255859e+00
1.810940653085708618e-01
4.130935072898864746e-01
8.393679857254028320e-01
8.338254690170288086e-02
-9.793348312377929688e-01
3.123473525047302246e-01
7.938711345195770264e-02
-6.557485088706016541e-03
7.673089504241943359e-01
7.218339443206787109e-01
-6.036649346351623535e-01
-7.519176006317138672e-01
2.327892780303955078e-01
-2.605330348014831543e-01
-2.034156471490859985e-01
-1.177661538124084473e+00
-6.449256539344787598e-01
2.686926536262035370e-02
-3.870703876018524170e-01
-6.356446072459220886e-03
6.392310857772827148e-01
-1.792596936225891113e+00
7.067973017692565918e-01
1.548530310392379761e-01
1.310330331325531006e-01
-1.109120249748229980e+00
-2.037012279033660889e-01
-3.989471495151519775e-01
5.405955016613006592e-04
-4.460296630859375000e-01
7.586810588836669922e-01
-3.899582922458648682e-01
3.334418833255767822e-01
1.446533083915710449e+00
-1.019162654876708984e+00
-7.545278072357177734e-01
1.951963424682617188e+00
4.509596824645996094e-01
-1.109877228736877441e+00
2.016186267137527466e-01
2.380631417036056519e-01
-3.105792999267578125e-01
-5.712947249412536621e-01
2.881969213485717773e-01
-3.917143344879150391e-01
7.781559228897094727e-01
-4.933193922042846680e-01
6.717628836631774902e-01
-1.124514102935791016e+00
-1.020248413085937500e+00
4.367076233029365540e-02
-4.308875799179077148e-01
1.662669032812118530e-01
-1.475124955177307129e+00
-1.097062706947326660e+00
7.646113634109497070e-02
-3.703190088272094727e-01
-6.172854304313659668e-01
-7.042047977447509766e-01
-7.485163807868957520e-01
