3.103579759597778320e+00
4.537019729614257812e+00
-2.147935152053833008e+00
3.531532287597656250e+00
-6.199525356292724609e+00
-4.187495231628417969e+00
-2.748842716217041016e+00
-1.408553123474121094e+00
9.177978634834289551e-01
-1.729106187820434570e+00
-5.484776496887207031e+00
2.510781288146972656e+00
9.881789088249206543e-01
-9.761533737182617188e+00
-1.973656058311462402e+00
-1.453948140144348145e+00
1.889196634292602539e+00
-1.131527066230773926e+00
-8.280097007751464844e+00
6.159688949584960938e+00
-2.374331951141357422e+00
1.273424506187438965e+00
-3.697498798370361328e+00
5.595037341117858887e-01
-5.999990463256835938e+00
-7.826721191406250000e+00
9.421624183654785156e+00
-3.158873796463012695e+00
8.287359237670898438e+00
-1.731485843658447266e+00
-9.910705566406250000e+00
1.075562477111816406e+01
-9.760302543640136719e+00
-2.670587062835693359e+00
6.355948001146316528e-02
4.550212383270263672e+00
-3.170452117919921875e+00
-4.222252845764160156e+00
3.743439197540283203e+00
4.817675590515136719e+00
3.983634471893310547e+00
-6.719562053680419922e+00
-8.222767829895019531e+00
3.671769142150878906e+00
-1.864495277404785156e+00
6.843495845794677734e+00
-2.541008472442626953e+00
5.427785873413085938e+00
-1.063325762748718262e+00
3.482468366622924805e+00
1.759499788284301758e+00
4.152369499206542969e+00
5.229403018951416016e+00
-1.835979938507080078e+00
3.146705389022827148e+00
-3.327821254730224609e+00
1.383250713348388672e+00
1.163441538810729980e+00
-3.055048704147338867e+00
2.462106943130493164e+00
-6.498059272766113281e+00
6.299428462982177734e+00
4.601708412170410156e+00
-2.552789449691772461e+00
-7.252845764160156250e+00
-4.848123073577880859e+00
4.093055725097656250e+00
-3.370004415512084961e+00
-1.344012737274169922e+01
2.813876152038574219e+00
