-2.323653697967529297e+00
7.189975261688232422e+00
7.745953559875488281e+00
-2.157850265502929688e+00
-3.239312410354614258e+00
7.309996604919433594e+00
4.444428920745849609e+00
3.450617074966430664e+00
5.448922634124755859e+00
-2.257146596908569336e+00
4.714855194091796875e+00
6.475298881530761719e+00
-5.363626003265380859e+00
-7.585156708955764771e-02
-4.966380119323730469e+00
-5.769209861755371094e+00
6.355416297912597656e+00
-2.197111606597900391e+00
-8.312708139419555664e-01
-7.140895843505859375e+00
1.849954128265380859e+00
-6.581386923789978027e-02
-8.963612914085388184e-01
2.585356473922729492e+00
1.685814261436462402e+00
-4.102628707885742188e+00
-5.925091266632080078e+00
-9.401741027832031250e-01
-5.091472625732421875e+00
2.982364892959594727e+00
-4.456287384033203125e+00
4.026931285858154297e+00
-4.120152473449707031e+00
4.771846771240234375e+00
-2.822312831878662109e+00
3.003620147705078125e+00
-1.257771849632263184e+00
-4.989032447338104248e-01
2.470321416854858398e+00
-3.784176349639892578e+00
6.159333229064941406e+00
2.796621322631835938e+00
-6.245272636413574219e+00
-2.208356857299804688e+00
-5.770471572875976562e+00
5.875400543212890625e+00
8.051514625549316406e+00
-1.943455934524536133e+00
2.102124214172363281e+00
8.633967638015747070e-01
3.403002023696899414e+00
-3.485738754272460938e+00
2.605258703231811523e+00
-4.543257713317871094e+00
1.182879328727722168e+00
8.698900222778320312e+00
-9.590027809143066406e+00
-2.711306810379028320e+00
-5.374826431274414062e+00
-7.461581230163574219e+00
-3.163369596004486084e-01
-6.594233512878417969e+00
8.095441818237304688e+00
