<<<<<<< HEAD
-1.740411400794982910e+00
1.933306694030761719e+00
-1.631119132041931152e+00
-7.453425526618957520e-01
-2.887150347232818604e-01
5.743615627288818359e-01
1.624768972396850586e+00
-1.006207704544067383e+00
9.605931043624877930e-01
-9.949464797973632812e-01
-2.877123117446899414e+00
3.737887144088745117e+00
4.085885286331176758e-01
1.680937528610229492e+00
3.001745045185089111e-01
-1.541385531425476074e+00
-6.380993723869323730e-01
1.982473433017730713e-01
-1.371282577514648438e+00
-6.609760224819183350e-02
1.099312067031860352e+00
9.718966484069824219e-01
-6.187064647674560547e-01
7.104862928390502930e-01
-6.771602630615234375e-01
-2.298869609832763672e+00
3.929988384246826172e+00
-1.726699322462081909e-01
-2.273509263992309570e+00
5.178071260452270508e-01
-1.025865197181701660e+00
-1.606714367866516113e+00
-2.165538549423217773e+00
-2.685666322708129883e+00
-6.300763785839080811e-02
-1.519778370857238770e+00
1.844109892845153809e+00
-3.852991163730621338e-01
-2.089354038238525391e+00
-2.282567739486694336e+00
2.118454933166503906e+00
8.550640940666198730e-01
1.484647870063781738e+00
1.612680315971374512e+00
8.325712680816650391e-01
-3.422949463129043579e-02
2.991327345371246338e-01
-1.191173553466796875e+00
1.791927695274353027e+00
6.947269290685653687e-02
2.954537391662597656e+00
-7.284838557243347168e-01
-3.030413985252380371e-01
-7.386173009872436523e-01
-1.026985406875610352e+00
1.818810820579528809e+00
-6.523475050926208496e-01
9.412887096405029297e-01
1.136759519577026367e+00
-1.704236268997192383e+00
2.050287961959838867e+00
-6.592074036598205566e-01
2.358908653259277344e+00
-1.800872445106506348e+00
1.314402103424072266e+00
1.949665188789367676e+00
4.964574575424194336e-01
-2.076536417007446289e+00
1.535308122634887695e+00
6.821407079696655273e-01
2.146081924438476562e-01
4.462111890316009521e-01
2.762887716293334961e+00
-1.319375038146972656e+00
-7.146582603454589844e-01
-1.933553814888000488e+00
-1.605055570602416992e+00
2.700182795524597168e-01
1.026669979095458984e+00
-1.763266205787658691e+00
-8.418446183204650879e-01
-3.026376008987426758e+00
-1.077629923820495605e-01
1.943140864372253418e+00
-1.622293472290039062e+00
4.561678469181060791e-01
-8.268381953239440918e-01
9.602352380752563477e-01
-1.083442047238349915e-01
1.909289598464965820e+00
-1.346169710159301758e+00
-2.750355482101440430e+00
-2.348183631896972656e+00
-8.833577632904052734e-01
8.337143659591674805e-01
1.032778382301330566e+00
-1.881844997406005859e+00
1.186645865440368652e+00
-7.004812955856323242e-01
4.025044441223144531e-01
-1.191613554954528809e+00
-5.196095108985900879e-01
-5.610370263457298279e-02
-3.623633682727813721e-01
7.647078037261962891e-01
-1.182750761508941650e-01
2.007886171340942383e+00
-1.434778213500976562e+00
1.101088523864746094e+00
-2.078530311584472656e+00
-7.902766466140747070e-01
3.603267371654510498e-01
=======
1.202886581420898438e+00
9.518911838531494141e-01
2.895870804786682129e-01
-1.037745997309684753e-01
-1.680888235569000244e-01
-2.298597097396850586e-01
2.052212238311767578e+00
-7.268344759941101074e-01
2.228151321411132812e+00
1.550173044204711914e+00
6.392346620559692383e-01
4.096459388732910156e+00
-3.427842259407043457e-01
-1.418734192848205566e-01
2.562561750411987305e+00
-1.470756769180297852e+00
6.186128258705139160e-01
5.531541109085083008e-01
-3.290216624736785889e-01
1.692672967910766602e+00
-1.951910555362701416e-02
1.334323287010192871e+00
2.346537590026855469e+00
3.485050201416015625e+00
4.901045799255371094e+00
-1.015695333480834961e+00
2.543456077575683594e+00
-1.355479240417480469e+00
-1.086322963237762451e-01
-1.144346356391906738e+00
-3.150127887725830078e+00
-3.122664213180541992e+00
-4.968571662902832031e-01
-3.085999488830566406e+00
-1.704695224761962891e+00
9.556581974029541016e-01
-2.169955253601074219e+00
-1.316642045974731445e+00
-4.007678329944610596e-01
3.276745975017547607e-01
-2.087445735931396484e+00
-1.334336996078491211e-01
1.536199331283569336e+00
-6.971479654312133789e-01
-1.488042593002319336e+00
6.191451549530029297e-01
-7.715164422988891602e-01
7.072558403015136719e-01
2.893835306167602539e-02
-3.555769681930541992e+00
6.328299045562744141e-01
-1.484686493873596191e+00
-6.488145589828491211e-01
>>>>>>> 221f4cd27e3893119104737928419a3add4f447c
