-5.970592498779296875e-01
1.564904153347015381e-01
-1.766006648540496826e-02
-6.675491929054260254e-01
-9.505332708358764648e-01
-1.980817168951034546e-01
3.786101639270782471e-01
9.091659784317016602e-01
-2.529513090848922729e-02
-4.029090702533721924e-02
7.881426811218261719e-01
1.140267252922058105e+00
9.615819454193115234e-01
-7.889382243156433105e-01
-2.102185040712356567e-01
-5.868135392665863037e-02
4.395054578781127930e-01
-7.279644608497619629e-01
6.652881503105163574e-01
-6.024521589279174805e-01
7.158338427543640137e-01
7.092034220695495605e-01
-5.070233941078186035e-01
1.261920690536499023e+00
-4.299312829971313477e-02
2.720446586608886719e-01
-2.229239642620086670e-01
7.232468128204345703e-01
-4.165377467870712280e-03
1.532189846038818359e-01
6.176531314849853516e-01
3.555734455585479736e-01
5.796607732772827148e-01
5.768013000488281250e-01
5.684937238693237305e-01
1.242061495780944824e+00
-5.069105625152587891e-01
8.127114176750183105e-01
2.107363045215606689e-01
6.989234685897827148e-01
-1.612888723611831665e-01
-1.577802062034606934e+00
1.099282979965209961e+00
-7.814736366271972656e-01
-1.483455300331115723e+00
-1.161021888256072998e-01
-5.741046667098999023e-01
7.749915719032287598e-01
1.131784439086914062e+00
-2.672799825668334961e-01
4.353328645229339600e-01
-2.821750044822692871e-01
6.658613681793212891e-01
-2.175674587488174438e-01
1.612913608551025391e+00
-7.722858190536499023e-01
2.829877138137817383e-01
1.099425792694091797e+00
-1.391124248504638672e+00
-1.452649712562561035e+00
4.720437824726104736e-01
4.426960349082946777e-01
-8.238067626953125000e-01
