-7.929921895265579224e-02
1.895122647285461426e+00
-5.327925086021423340e-01
1.561040878295898438e-01
-3.799695730209350586e+00
-1.136213064193725586e+00
-2.066933393478393555e+00
-1.001635670661926270e+00
-2.239815473556518555e+00
1.582895994186401367e+00
-1.751031994819641113e+00
-2.189723730087280273e+00
-3.326551437377929688e+00
1.123860239982604980e+00
5.246822834014892578e-01
2.316521167755126953e+00
-2.257896214723587036e-01
-3.620050907135009766e+00
-1.908005475997924805e+00
-1.844815850257873535e+00
2.776603460311889648e+00
-3.551133275032043457e-01
5.278925895690917969e-01
-1.557350158691406250e-01
-6.810696125030517578e-01
-3.663543760776519775e-01
2.347280979156494141e+00
3.781981766223907471e-01
-2.408945798873901367e+00
-1.986568927764892578e+00
-1.908742427825927734e+00
-2.613201856613159180e+00
4.568799212574958801e-02
-4.127480506896972656e+00
1.758187532424926758e+00
-3.754899501800537109e+00
3.361528158187866211e+00
4.060570716857910156e+00
-1.797463595867156982e-01
4.158226966857910156e+00
-1.320934444665908813e-01
1.310907840728759766e+00
2.399924755096435547e+00
1.422358512878417969e+00
4.782028496265411377e-01
-3.372932374477386475e-01
-2.975936233997344971e-01
2.256241798400878906e+00
1.912997007369995117e+00
2.092057466506958008e+00
-7.897301912307739258e-01
-1.225531339645385742e+00
1.494960188865661621e+00
6.237924098968505859e-02
7.624663710594177246e-01
-1.528456926345825195e+00
-2.173922657966613770e-01
1.404870510101318359e+00
1.319230794906616211e+00
1.721603870391845703e+00
6.932755708694458008e-01
1.627489566802978516e+00
2.348411321640014648e+00
