1.306215405464172363e+00
-1.044570541381835938e+01
1.369127511978149414e+00
-1.114855051040649414e+00
3.342431783676147461e+00
1.087684154510498047e+00
2.031036853790283203e+00
3.176655530929565430e+00
-1.019532775878906250e+01
-3.761630773544311523e+00
7.472839832305908203e+00
1.285526752471923828e+00
-1.475207328796386719e+00
2.383032083511352539e+00
-7.299896717071533203e+00
2.343543052673339844e+00
3.593780398368835449e-01
2.169977426528930664e+00
3.235306978225708008e+00
-7.119571208953857422e+00
-5.282570362091064453e+00
-3.514009237289428711e+00
-2.074737548828125000e+00
-2.423760652542114258e+00
-7.203837037086486816e-01
1.799443840980529785e+00
1.788119077682495117e+00
-3.476512670516967773e+00
1.887452363967895508e+00
5.880096435546875000e+00
-3.866910934448242188e+00
-9.434821128845214844e+00
-7.383552551269531250e+00
8.488883018493652344e+00
1.440492749214172363e+00
7.412805080413818359e+00
-1.818124294281005859e+00
2.792375802993774414e+00
-3.105020523071289062e-01
1.237433528900146484e+01
1.198761558532714844e+01
1.580943107604980469e+00
1.077979278564453125e+01
-2.663950204849243164e+00
7.892436504364013672e+00
3.655283451080322266e+00
-5.837863445281982422e+00
-3.554233610630035400e-01
-1.653731107711791992e+00
7.539673328399658203e+00
-8.559021949768066406e-01
-8.764016151428222656e+00
-1.206778407096862793e+00
5.103765964508056641e+00
3.549382448196411133e+00
1.333977127075195312e+01
-1.639642906188964844e+01
-1.413477778434753418e+00
-5.727344989776611328e+00
9.740169525146484375e+00
-5.018886089324951172e+00
-4.569177150726318359e+00
4.013439655303955078e+00
