<<<<<<< HEAD
1.806473731994628906e+00
5.591817855834960938e+00
=======
-1.152596473693847656e-01
-9.316954612731933594e-01
-2.499399632215499878e-01
5.304124355316162109e-01
-6.093835830688476562e-01
9.030425548553466797e-01
-1.204664468765258789e+00
-7.240839004516601562e-01
-4.765129089355468750e-01
3.288450241088867188e-01
6.467580795288085938e-02
2.028351545333862305e+00
-8.582209348678588867e-01
-1.241783618927001953e+00
3.170559883117675781e+00
1.653589487075805664e+00
-1.717988967895507812e+00
4.139469861984252930e-01
1.197149753570556641e-01
1.707850456237792969e+00
-9.078313112258911133e-01
-1.348956823348999023e+00
2.040884256362915039e+00
-1.153679370880126953e+00
3.778223097324371338e-01
-8.110294342041015625e-01
9.415606260299682617e-01
-2.275421619415283203e-01
1.343925476074218750e+00
1.254091143608093262e+00
3.112096786499023438e-01
-9.572625160217285156e-01
-1.547366142272949219e+00
8.099137544631958008e-01
-7.888925075531005859e-01
-2.645007371902465820e+00
9.471938610076904297e-01
2.163161277770996094e+00
5.488240718841552734e-01
-1.513702869415283203e-01
-1.386323451995849609e+00
2.213406562805175781e-01
1.089931249618530273e+00
-1.206753373146057129e+00
5.648555755615234375e-01
2.730914831161499023e+00
-1.915710330009460449e+00
-1.803944349288940430e+00
-7.432540655136108398e-01
9.093167781829833984e-01
-1.702046871185302734e+00
9.997694492340087891e-01
3.487837314605712891e-01
-2.562353134155273438e+00
-2.062968254089355469e+00
1.714969754219055176e+00
2.383296012878417969e+00
7.447142601013183594e-01
3.614788055419921875e-01
-1.350548744201660156e+00
-9.718654155731201172e-01
-3.280596017837524414e+00
-1.252263545989990234e+00
-1.544402837753295898e+00
1.550119161605834961e+00
-2.479019165039062500e-01
7.292454242706298828e-01
-8.989262580871582031e-01
2.493442773818969727e+00
1.746710538864135742e+00
1.840143680572509766e+00
-1.447345256805419922e+00
-7.077291607856750488e-01
-7.853853702545166016e-01
-1.372389316558837891e+00
-1.826574325561523438e+00
3.275945186614990234e-01
-1.196704745292663574e+00
-9.434204101562500000e-01
2.551484107971191406e-01
-2.970055341720581055e+00
-1.004021644592285156e+00
9.187330007553100586e-01
7.185071110725402832e-01
-1.066170454025268555e+00
6.080069541931152344e-01
2.193259239196777344e+00
1.373576402664184570e+00
7.308468818664550781e-01
2.917134761810302734e-02
8.906621932983398438e-01
-1.272280693054199219e+00
-1.425647735595703125e+00
-5.421829223632812500e-01
-1.221770405769348145e+00
-8.190293312072753906e-01
-6.287289857864379883e-01
-2.775401115417480469e+00
>>>>>>> 221f4cd27e3893119104737928419a3add4f447c
