1.340476703643798828e+01
-8.011808395385742188e+00
1.184640789031982422e+01
5.141282558441162109e+00
-9.584081649780273438e+00
-5.310740947723388672e+00
-1.261097240447998047e+01
-6.631972789764404297e+00
2.558114051818847656e+00
-4.292378425598144531e+00
4.402029037475585938e+00
-3.444958686828613281e+00
5.721605777740478516e+00
4.133169651031494141e+00
6.018507003784179688e+00
6.673162460327148438e+00
4.064837455749511719e+00
1.783048152923583984e+00
-3.641335487365722656e+00
-6.852941513061523438e+00
1.087986660003662109e+01
-4.239259243011474609e+00
1.313057708740234375e+01
4.757429122924804688e+00
-1.577782249450683594e+01
1.847368478775024414e-02
-3.695305109024047852e+00
3.602381467819213867e+00
-1.227021408081054688e+01
1.126545667648315430e+00
8.338813781738281250e+00
-1.383133220672607422e+01
-5.811914443969726562e+00
7.962040305137634277e-01
-1.547986507415771484e+00
-5.312642574310302734e+00
1.018111991882324219e+01
-1.242193412780761719e+01
-1.036011505126953125e+01
-1.862631559371948242e+00
-2.850728034973144531e+00
1.032407760620117188e+01
-9.928319454193115234e-01
-1.650539016723632812e+01
-1.240768909454345703e+01
-1.079685974121093750e+01
-3.088575839996337891e+00
7.598296403884887695e-01
-1.023616123199462891e+01
-1.347546863555908203e+01
6.216945171356201172e+00
7.535246849060058594e+00
4.654182910919189453e+00
1.935712695121765137e+00
6.900675296783447266e+00
-4.198649883270263672e+00
-3.048125505447387695e+00
8.144461631774902344e+00
-5.920315265655517578e+00
3.455420732498168945e+00
-1.090812301635742188e+01
-1.263309717178344727e+00
-7.607299327850341797e+00
