-5.123923110961914062e+01
-2.044004058837890625e+01
2.665260887145996094e+01
3.929881668090820312e+01
-3.897454071044921875e+01
7.094448852539062500e+01
-7.746152496337890625e+01
7.409857940673828125e+01
4.683958816528320312e+01
-2.514077186584472656e+01
7.320713806152343750e+01
-6.680630493164062500e+01
4.740938949584960938e+01
-6.615110778808593750e+01
1.763907623291015625e+01
3.113252830505371094e+01
9.392889976501464844e+00
-1.054668235778808594e+01
3.999110758304595947e-01
-4.160263061523437500e+00
-3.048222160339355469e+01
4.055803680419921875e+01
-5.804149627685546875e+01
4.313876342773437500e+01
-2.268660545349121094e+01
6.623819828033447266e+00
3.232139587402343750e+01
-9.509347534179687500e+01
-4.130132675170898438e+01
-4.083082580566406250e+01
-3.408717727661132812e+01
-6.424277496337890625e+01
-2.017413139343261719e+00
-3.046770477294921875e+01
7.871432495117187500e+01
-1.057061996459960938e+02
8.754580497741699219e+00
2.681442260742187500e+01
8.857919692993164062e+00
-6.207064056396484375e+01
6.652696990966796875e+01
7.958814239501953125e+01
-3.151155090332031250e+01
-2.243715667724609375e+01
-7.029953765869140625e+01
5.840708160400390625e+01
9.499304962158203125e+01
-9.157014465332031250e+01
-4.828511428833007812e+01
-1.884537124633789062e+01
3.813595581054687500e+01
-3.710188293457031250e+01
1.320627593994140625e+01
-4.250534057617187500e+00
-9.607302665710449219e+00
-4.727680206298828125e+00
5.254446411132812500e+01
-2.170203590393066406e+01
3.725249099731445312e+01
1.719409942626953125e+01
3.728696060180664062e+01
-3.439990997314453125e+01
-2.386946296691894531e+01
-1.889460945129394531e+01
-5.177300262451171875e+01
-8.893704414367675781e+00
-3.631447219848632812e+01
-3.710428237915039062e+01
8.202804565429687500e+01
9.676997661590576172e-01
